digraph Tree {
node [shape=box, style="filled, rounded", color="black", fontname=helvetica] ;
edge [fontname=helvetica] ;
0 [label="revenue1 <= 2694839424.0\ngini = 0.075\nsamples = 230\nvalue = [9, 221]\nclass = Close", fillcolor="#41a1e6"] ;
1 [label="surplus1 <= 4768467072.0\ngini = 0.198\nsamples = 45\nvalue = [5, 40]\nclass = Close", fillcolor="#52a9e8"] ;
0 -> 1 [labeldistance=2.5, labelangle=45, headlabel="True"] ;
2 [label="revenue1 <= 2650433920.0\ngini = 0.13\nsamples = 43\nvalue = [3, 40]\nclass = Close", fillcolor="#48a4e7"] ;
1 -> 2 ;
3 [label="gini = 0.091\nsamples = 42\nvalue = [2, 40]\nclass = Close", fillcolor="#43a2e6"] ;
2 -> 3 ;
4 [label="gini = 0.0\nsamples = 1\nvalue = [1, 0]\nclass = Open", fillcolor="#e58139"] ;
2 -> 4 ;
5 [label="gini = 0.0\nsamples = 2\nvalue = [2, 0]\nclass = Open", fillcolor="#e58139"] ;
1 -> 5 ;
6 [label="netasset1 <= 3814873984.0\ngini = 0.042\nsamples = 185\nvalue = [4, 181]\nclass = Close", fillcolor="#3d9fe6"] ;
0 -> 6 [labeldistance=2.5, labelangle=-45, headlabel="False"] ;
7 [label="gini = 0.0\nsamples = 94\nvalue = [0, 94]\nclass = Close", fillcolor="#399de5"] ;
6 -> 7 ;
8 [label="netasset1 <= 3874255232.0\ngini = 0.084\nsamples = 91\nvalue = [4, 87]\nclass = Close", fillcolor="#42a2e6"] ;
6 -> 8 ;
9 [label="gini = 0.0\nsamples = 1\nvalue = [1, 0]\nclass = Open", fillcolor="#e58139"] ;
8 -> 9 ;
10 [label="gini = 0.064\nsamples = 90\nvalue = [3, 87]\nclass = Close", fillcolor="#40a0e6"] ;
8 -> 10 ;
}